4.396887658113698277e-02 -4.266656719493122640e-02 4.702995366757734691e-02 -1.719794555340803666e-01 1.880361759642436015e-01 1.939228621396150709e-01 9.208352034070543812e-02 -2.029681784013350199e-01 1.258370606331856920e-02 -1.064829497230777439e-01 -1.499936056907293924e-01 2.790405537522737678e-01 2.979341955236731176e-01 -2.723720828423669693e-01 2.161035396642433104e-01 5.595276189527759181e-02 -7.103640844852926461e-02
-1.283226234823887091e-01 1.064072374415897804e-01 -2.586627251259539587e-02 1.112864299043046373e-01 1.098193492675873933e-01 -2.202131131726723090e-01 1.608392064079740558e-01 2.918808813780306988e-01 2.819259055556040394e-01 7.228667566533307498e-02 -2.662720942540099944e-01 -2.828559703082930699e-01 -2.150724224514243554e-01 2.586841396629154244e-01 -1.170753723569509797e-01 -7.128518839527701878e-02 2.387234851138678171e-01
-1.102275536042785359e-01 3.634415607279702781e-02 -2.681945118911801054e-02 -2.505081786424867007e-01 5.554950046300706490e-02 2.185476819466590503e-01 -1.960451784539426479e-01 -1.642932990211862232e-01 -4.776906754989489884e-02 -2.766659685582861239e-01 2.606993832163546996e-03 1.962426586146968910e-01 1.106441449565399165e-01 2.383328157353077972e-02 2.191489069438159465e-01 -2.099222089269047464e-01 4.585773721311803275e-02
-7.095801690422692820e-02 7.185832516284237914e-02 -2.320054929827523871e-01 1.831021046358254079e-01 -2.420365000893883733e-01 -1.999924977951352822e-01 1.853393936214820514e-01 2.712806168621404446e-01 -3.564231405449143353e-02 -4.067414925163266581e-02 -1.527108743155469184e-01 -1.274163050593816460e-01 7.035166258449976340e-02 -1.929237535675648318e-01 -2.283104974015337241e-01 -2.505263901779483313e-02 -2.011556240845232824e-01
9.202598877038943581e-02 1.977793439634916717e-01 1.667050788205117484e-01 -1.167487998480556781e-02 -7.613474466186692657e-02 -3.763218797733595966e-02 -2.971543697382296179e-01 1.284134628804111111e-01 -9.984784986423884956e-02 -9.989075172799727342e-02 -2.383526608591860774e-01 -3.115805610196000636e-02 5.372799995976107468e-02 -6.564783489426959107e-02 2.226214149258148312e-01 1.040188473415764731e-01 -1.506416967712591037e-01
1.524734617837534764e-02 2.460898292075063276e-01 1.206581659284772234e-02 6.126292124336957245e-02 -2.621606527261922670e-01 -3.553362097641576262e-03 -2.312685402470900792e-02 -5.932207195865857319e-02 -4.773878511208673459e-02 5.185511728801066311e-02 2.320714634635464430e-02 -1.202414941107166416e-02 -2.005221356806753952e-01 -2.784150126312065834e-02 2.812069191365655363e-01 -5.089578406930037047e-02 -2.788093021273013172e-01
-2.893332269362685616e-01 2.860147905445461353e-02 -2.696665536466316682e-01 -2.443539567946849678e-01 -2.347461524238185215e-01 -1.858448473639898527e-02 2.956128394582522856e-01 2.732828774332417710e-03 -2.481582971496937295e-02 -3.889011640059775177e-02 -1.197197601179883324e-03 -3.119779585903411853e-02 1.405814423806035496e-01 2.388396972057202916e-01 1.324961257670918269e-01 -4.773729246014615790e-02 9.045644824789278449e-02
2.457312758066698410e-01 -2.145818048869055916e-01 -1.577353803057162662e-01 7.881760833340736849e-02 1.124102125841626304e-01 8.580521950765356010e-02 6.689300215172080954e-02 1.976539163072225103e-01 -1.244497332967773283e-02 1.922844577386107479e-01 2.785713246848376956e-01 -3.504550292361022917e-02 2.260438443421319832e-01 1.309454275189845252e-01 2.374257613924764809e-01 -2.720133824020280477e-01 2.616350513181421311e-01
1.703445070678207551e-01 2.914059622308060038e-01 2.855314938619624709e-01 -1.234672846747640745e-01 1.171734363827958564e-01 -1.983445112003409394e-01 6.761516681293198994e-02 2.505019171159661440e-01 -1.689572516765147914e-01 -8.931366901571703709e-02 -2.455997516564888961e-01 -1.714192752506827899e-01 -1.666931438626796103e-01 -2.268066172597860419e-01 3.182217555815206600e-01 2.400707302078428640e-01 -1.652313472880772433e-02
1.462214682314335601e-01 1.171420760184695986e-01 1.347276593360818842e-02 -4.440147729472228993e-02 9.832568623697060528e-02 3.331192378032199475e-02 -1.404661032667877951e-01 -7.766163186297238286e-02 7.636005781336696607e-02 7.627733502275152455e-02 -1.742437433129035707e-01 6.586379442422030106e-02 2.249572562359689054e-01 2.228024697845331636e-01 1.003265015959969031e-01 -2.578963960456434057e-01 -4.589946478271623997e-02
-2.255847383407811602e-01 -2.631656108577802855e-01 -1.360176554908656410e-01 -2.060996191959632226e-02 1.668782660782109073e-01 8.279349478826851516e-02 -1.153612643872398563e-01 1.250539420743972396e-01 8.167881960688598217e-03 3.480181386310421399e-02 -1.394507737603909447e-01 -3.379414351519139520e-02 -8.817139726399027266e-02 1.478446965669556468e-01 -2.161948885259240387e-03 -1.018308323097286486e-02 -5.203765084311322633e-03
-7.979856555047728714e-03 1.169044195949945075e-01 1.339054757677756724e-01 1.818160007940667622e-01 -5.080233279195855989e-02 1.884295972259960317e-01 2.878391214537668330e-01 2.991978051976449393e-01 1.361260826121452328e-01 -2.607068109711970227e-01 2.085470896991898915e-01 2.061955967598129713e-01 -2.903192283363150716e-01 -9.855222431662220839e-02 -1.067416679537199764e-01 1.578709184194727055e-01 6.446703609653868516e-02
-1.304085270826459142e-01 -1.879355772244517275e-01 -1.851059004117119045e-01 -2.427280624682907617e-01 1.813944965701770329e-01 2.623109909758621905e-01 -1.677129855774810718e-01 1.513438531801012676e-01 2.815635851378875953e-01 -1.847654196514634806e-01 4.740037657342202615e-02 -2.263652703418741335e-02 2.849165564979009857e-01 2.219444013818395178e-01 -2.879951434523599363e-01 -1.781641269051451593e-01 2.133275372741600673e-01
4.569214183113395888e-02 1.822868287216074940e-02 1.967654985948764645e-01 1.583966869216345552e-01 2.764843932141037852e-01 -9.884809493904223032e-02 -2.671169985688585657e-01 1.225128610097469539e-01 -2.705164148452083306e-01 4.436071402133912739e-02 2.199928335841677685e-01 -5.184989553799011081e-02 6.556371675074995631e-02 -1.926047591381430668e-01 -2.053038759987735051e-01 6.811162480155719123e-02 2.198522558201215782e-01
3.094789013913917808e-01 -2.722620980851887529e-01 2.645167129198476852e-01 2.989576866794295754e-02 -7.938904070698886428e-02 -5.670476111209355602e-02 4.401145662940861292e-02 -8.755396283179085748e-02 -1.965570050620042974e-01 2.277467005181617044e-01 1.447875281504297229e-01 7.027309113747347291e-02 1.359107700015345921e-01 2.952025162322881591e-01 -1.833833279774741976e-01 1.990447940224704670e-01 2.105001024057364112e-01
-9.399130513229339567e-02 4.011429309615229671e-02 -2.496293758642903482e-02 -1.833982448412524446e-01 -4.198511054519352137e-02 -2.010533562942837249e-01 2.591276106552127811e-01 -1.884888885453912255e-01 8.018606917554413349e-02 4.200750334009784037e-02 2.849928376481271619e-01 1.764039457636231434e-01 -7.010961653156569384e-02 -7.433025705699841668e-02 -2.698718718963011853e-01 -2.680278203970701822e-01 -1.122581177861314977e-01
2.784473128731999592e-01 -2.665317334456608900e-01 -1.801443033315281717e-01 9.535926638808947531e-02 -8.990805979187874164e-02 -1.946257055728342067e-01 2.772877628835727082e-01 -2.579626023604285057e-01 7.748086169270569645e-02 -4.274057487365733043e-02 -7.604429519340515087e-02 -1.831822653762022746e-01 -1.945689996139688405e-01 -5.128047192296790457e-02 1.502924305904808078e-01 -1.571502431509761745e-03 1.734289236537606138e-01
2.271974043726461834e-01 -1.952421701099770202e-01 2.367664837208141582e-01 4.288055291452169682e-02 -4.762767751472153643e-02 1.536386372312478071e-02 2.339800791301613336e-01 -6.482080234918560779e-02 -2.434241500648617329e-01 2.806915630392902705e-01 -2.289728288275871271e-01 -2.290420128037289893e-01 1.312924448503675345e-01 -1.137439189887948648e-01 -1.263555749909481829e-01 8.955565155667809252e-02 2.350701447631453334e-01
-8.530022652928467841e-02 2.488380823644842921e-01 7.787285091920502500e-02 6.779552716770746723e-02 2.490569202952768596e-02 -2.876019538156421307e-01 -1.937288582329461384e-01 1.164204412715751785e-01 1.223397420294801141e-01 -2.393043418317992443e-01 8.785908161071018241e-02 -1.516347957452071973e-02 4.952952907602075489e-02 -3.228827423744978081e-02 -1.692487865884424181e-01 -8.677135690388580735e-02 2.837042127985468509e-01
-1.866539355851136450e-01 2.311537664949722959e-01 1.874706309782286917e-02 -2.548909173916938387e-01 1.876022877169962744e-01 -2.884698547477393404e-01 2.068626515439158930e-01 -8.602402558855000436e-02 2.511714183309084469e-01 1.402151630674944860e-01 -8.494479362164911174e-02 7.519858841357024426e-02 2.920350095059340290e-01 -1.958369527727336912e-01 -1.767769482651077306e-01 -1.264790566598754384e-01 1.923974508116127469e-01
-1.518418778201915398e-01 -1.521694762125805067e-01 6.882194524272849945e-02 5.074534533417107696e-02 -4.875653442555294426e-02 3.066873890575927408e-02 -2.813425177692674972e-01 -2.967229524708434041e-01 -2.833982489769014124e-01 -2.669993399723346594e-01 1.624341835117502630e-01 2.874890827142949079e-01 -2.252169116147438310e-01 -6.883724003698407645e-02 -2.912229955402325654e-01 -3.961215583255311978e-02 9.700177244625451944e-02
7.778853401535540391e-02 2.393930070371646512e-01 2.947444302329726984e-02 -2.698783375576998544e-01 -7.402064685713495573e-02 -2.490375813286710774e-02 -9.868335608456715868e-02 -2.792874953828506368e-01 7.648111340329089014e-02 -6.704074356237987864e-03 1.255764663716386620e-01 -8.165978661091499724e-02 -2.577920076104274760e-01 -1.366470317707622617e-01 -1.830191531015719353e-01 -1.221861359834645021e-02 -1.919634210674609764e-01
