-2.522366870542505635e-01 1.493941832396672442e-02 -2.155274669815624711e-01 -2.372647396691480448e-01 -2.277686282721537170e-01 1.232369659169875037e-01 1.839932322560465794e-01 1.858565211452861410e-01 4.547567742069728164e-02 7.322263625932537434e-02 1.522132177855093360e-01 -1.784876525511637155e-02 5.855513271401713293e-03 1.278273272186946363e-01 8.033169791726266218e-02 5.738938716553679958e-02 8.778576051127162660e-02
3.574837595397763190e-02 -1.716298126924161727e-01 -1.165198713916728163e-01 1.147795282688935242e-01 -4.864509706869490913e-02 2.150568948399494418e-01 -7.552678424831470172e-02 1.016122597230710578e-01 -2.306597587548209205e-01 -1.202769959084825924e-01 2.151346635046115507e-01 -1.946706227737101391e-01 8.528846149233416940e-02 -2.912343899348607268e-01 6.557378821976789229e-02 -2.947852372900401901e-03 2.396394150006242729e-01
2.034755576384072173e-01 1.783269579411294603e-01 -7.998706642365437103e-02 1.119374006975506486e-01 -1.973984008980170790e-01 -6.129300013883487094e-03 -6.189378239142907107e-02 -1.758668556286975548e-02 -1.258042880604238467e-01 -1.585654385187659221e-01 1.193156977147524084e-02 9.279038350856193273e-02 4.214543629272117509e-02 2.718249771251435298e-01 4.362912935177735291e-02 -2.104508935410961401e-01 8.497102668110960433e-02
-9.773866730999726526e-02 2.736341395487011940e-01 -2.220598606178408874e-01 -1.570128924389208383e-02 1.042418062740082529e-01 2.816988521569451231e-01 2.134254268033493676e-02 -5.751925859947423086e-02 1.780904416118998246e-01 1.826871212764231978e-01 2.482037798965426867e-01 1.328682850687984141e-01 -2.234385786955923325e-01 2.948666453800077858e-01 2.584092260871470592e-01 -2.443703618400604183e-02 9.557852218749819662e-02
2.005774029977318851e-01 2.507478877138106799e-01 1.338200582642915804e-01 -2.456439207755044818e-01 -2.495792331555281851e-01 -6.582830134653161469e-02 -2.640304219933948746e-02 -1.049997786742881828e-01 1.496949070178963670e-01 1.705376401653620477e-01 -4.967135171320797432e-02 1.188237568474812406e-01 -1.844823643450667905e-01 2.708354238226273192e-01 -1.551128951339034168e-01 -2.062646117069462381e-01 -6.420415479846085238e-02
2.178298859900927864e-01 5.894158105303358430e-02 1.116652376787639067e-01 1.909679338191648257e-01 -6.845575516724410059e-02 2.757120796365198911e-01 2.923955797628250974e-01 2.110324381063333199e-02 1.496199227344086058e-01 2.122575831689360870e-01 5.498383693211381096e-02 -2.297850224127089003e-01 9.408302037132743045e-02 -1.018953265623909546e-03 2.125488323660492118e-01 -1.744458991088441158e-01 -2.929339507781189011e-01
-1.926931219517548921e-01 -1.719576435186524477e-01 -6.941443171764537234e-02 -1.753218982462860231e-01 -9.962270424177613326e-02 5.344444459222414540e-02 -2.070299458821886762e-01 -9.240354831209298542e-03 -8.665984716250477171e-02 -2.970541101841988052e-01 1.045172242527170753e-01 9.280379317711266642e-04 1.657328920607153422e-01 2.261118855162512209e-01 -2.614724526684512051e-01 1.284638477137765022e-01 -2.440532217603728904e-02
2.245455864197557772e-01 -2.385970585210373529e-01 2.032667730065229328e-01 -1.667758264376873953e-02 -2.443812467780348274e-01 -2.270900240771941969e-02 2.359797871237949707e-01 -2.559386961767920465e-01 -7.276225299561735194e-02 -2.437271613123799252e-01 -2.957633111680053051e-01 2.083310020720780253e-01 4.095674797702192338e-02 4.241391636291907963e-02 2.395699212788319210e-01 -2.490087595012591970e-01 2.763085311318403958e-01
1.616139394787348693e-01 2.150266491857737161e-01 1.812285336235670008e-01 -5.336077441126399479e-02 -2.605252116872771029e-01 3.082272307001996392e-01 8.038043627899792154e-02 1.270070159552813549e-01 1.353114859848567053e-01 -1.207286617922017913e-01 9.858680090653842987e-02 -1.083066218718737282e-02 -1.462690708434139508e-01 1.651922517485705094e-02 1.672228351555867312e-02 -1.091006733901501852e-01 1.496632819677609638e-01
2.453367700345833735e-01 5.883070868124873343e-02 -2.860826097393612266e-01 4.106944212321901599e-02 7.851746551696488219e-02 1.892960002898105842e-01 -1.179421789181117897e-01 -1.593533168403008515e-01 -7.575237928387903996e-02 -2.036325550181323496e-01 1.676100335976066780e-01 -2.837361013520217079e-01 3.887422442265775491e-02 1.999305271681329765e-01 -2.805574193076358358e-01 -2.013197850284672297e-01 2.951649141482085570e-01
-1.057568942788492949e-01 1.689306562634065589e-01 -2.829347395281902044e-01 6.936851181451214902e-04 -2.637330898189726436e-01 -1.404094626504726606e-01 -2.791184043627742417e-01 1.094249162025631023e-01 -2.755571566121664193e-02 -5.353104661603663716e-02 -2.511147611260624787e-02 1.081343290460182044e-01 -1.097527976797900845e-01 -1.967298470326397097e-01 -2.625534884045390704e-01 1.028078416965661906e-01 9.870206159818524505e-02
-1.564558620628857810e-01 9.145861915997904185e-03 2.904463031634268444e-01 -1.597183269708854839e-02 1.863955249046323204e-01 -7.915451756625803414e-02 3.124825437761982044e-02 1.672451057424317877e-01 1.187629329657278326e-01 5.842150667332612901e-02 -1.231996829979234570e-01 -2.517245542077214959e-01 -1.065874279522155063e-02 1.336468355207737213e-01 -8.417607179605704482e-02 1.359244567520816738e-01 -1.741862326033480346e-02
-2.580855107764137291e-01 4.855736724543144311e-02 3.920609846925515035e-02 -1.069620506977401464e-01 -1.805299578027954044e-01 2.995366871135514697e-01 5.138290477980665683e-02 1.469795566268742026e-01 -2.641716378809145782e-01 1.399799043093716000e-01 -2.031009043321796159e-01 -4.297821059423088258e-04 -6.377112811769436451e-02 -6.665146686997404368e-02 1.970335552658610823e-01 -1.784227580848310457e-01 2.793446886348509572e-01
2.099727972517495822e-01 7.162590201789849516e-03 2.362569953199417927e-01 2.984796988277804708e-02 2.509990421048501341e-01 -6.897289766144107381e-03 2.865675186159840071e-01 1.508733407938623039e-01 1.093485115010503911e-01 3.062452859757734402e-01 1.172981638619794015e-01 -1.485487999830409078e-01 8.900532315054938970e-02 -1.884283232363883898e-01 -5.715129869928545214e-02 1.220243148737100991e-01 -1.849214979270544235e-01
-4.156598372363896898e-02 -1.623748675021907395e-01 -4.197306032990048147e-02 -1.567486839262748344e-01 1.262914759032227607e-01 2.111416228128615291e-01 -9.422588855370278918e-03 1.274023637778936846e-01 1.711972832898666641e-01 1.897271891194749760e-01 2.165489295223230470e-01 1.041545778022994889e-01 1.432614527841163943e-01 1.458306925580644953e-01 1.438931285537987069e-02 1.899395702419026666e-01 -1.759536875905426123e-01
1.319360929438970209e-01 8.301081954409912644e-02 2.443134786045608742e-02 6.260655150918004175e-02 2.509792785087292533e-01 1.737300289279574694e-01 1.143883453976121539e-01 2.404606311294528731e-01 2.227989612071347991e-01 -1.034305156088366207e-01 2.164484330531911416e-01 2.316667061022910368e-01 5.911240406553568832e-02 2.552267460207003347e-01 -1.947233507035376066e-01 1.894156667658422888e-01 -1.544163639663799492e-01
-5.757673537615966286e-02 4.799774249765014801e-03 -2.136948482805869215e-02 1.010394963999039497e-02 -2.522929413965095402e-01 -2.725032516479125588e-01 1.745522855602722190e-01 -1.122193389965022436e-01 -1.334616227104041819e-01 1.201576356738011664e-01 1.539943695878289442e-01 2.098481819715839608e-02 1.906507910141030382e-01 -8.960076232854714828e-02 2.261453218061551529e-01 9.264528388533627146e-02 2.335953481532225817e-01
1.883433183794132604e-01 1.205713394501159996e-01 2.544966111124914443e-01 1.446327848902903834e-01 -2.987375338873259414e-02 -2.033969394598631464e-01 -5.799245257214119542e-02 6.825385370340764091e-02 -2.862247325622319649e-01 5.790062897010146703e-02 -5.523164015042844599e-02 -1.463165803526938168e-02 -2.602606899809318808e-01 -2.530366699962264820e-01 8.906842614920820744e-02 -1.384436140905929147e-01 -2.073964519739554258e-01
2.456032357077128636e-01 -2.559728729736135966e-01 1.362620535204530914e-01 1.938317276356409102e-01 2.385400341779319033e-01 1.000379075967776643e-01 -2.677830399605197753e-01 -2.768811868803750312e-02 2.291898467471609746e-01 -5.368104035376373290e-02 3.157047093396623400e-02 1.456801725949239956e-01 4.622474597683227243e-02 -7.330659674410842930e-02 5.532032931032366402e-02 -2.131782367974973530e-02 -9.214324085678891885e-02
-2.581151431372970539e-01 -1.340518993948118520e-01 2.970553541781251750e-01 -1.243624061976805611e-01 -8.277238174512645263e-02 2.886526478258988893e-01 -2.260255004613440921e-01 -1.378205680858483606e-01 -7.402299055466901589e-02 -2.154638879165432161e-02 -5.703061148531068936e-02 -1.352877924619831640e-01 -2.097662913987864974e-01 4.765255422847826383e-02 -1.986117399090084057e-01 -2.978104392703995740e-01 1.554845085867412879e-01
1.581813809008008609e-01 -8.329607950092768331e-02 2.291411262775953639e-01 -2.044267312579013951e-01 2.405843460054571392e-01 1.088462709155448294e-01 1.021426102312392725e-01 -2.699809265721039298e-01 1.570514094141454153e-01 -1.985603679753089323e-01 2.141013414326997655e-02 3.013638027575499256e-02 -2.637108315161110772e-01 -1.228345050546588990e-01 2.516857063519852278e-01 1.553317145927375909e-01 -1.152846610860678578e-01
2.863130104906137507e-01 -2.567460585953331154e-01 9.156696650950374439e-02 1.821785199319055082e-01 2.085956667727290881e-01 8.810378954799710782e-02 1.436448213230091253e-01 -1.522128516138202825e-01 1.695486569762761908e-01 1.083736504809565959e-01 4.439640472400641080e-02 -1.398658920282163654e-01 1.032588615120399039e-01 -2.702170690760528071e-01 5.817946374300422309e-03 9.894352941408350588e-02 -8.267444028658402222e-02
